svm_type c_svc
kernel_type linear
nr_class 3
total_sv 5
rho 1.23924 0.671414 -0.193149
label 1 2 3
nr_sv 1 2 2
SV
1 0.5000849735908708 1:1.2467973 2:1.1212288 
-1 0.5486029257083405 1:0.44511747 2:0.43819249 
-0 1 1:0.12142664 2:0.064404927 
-0.5000849735908708 -1 1:-0.12679224 2:-0.33224016 
-0 -0.5486029257083405 1:-0.53266364 2:-0.74233085 
